MTP
version = 1.1.0
potential_name = MTP1m
scaling = 9.269145023521909e-02
species_count = 2
potential_tag =
radial_basis_type = RBChebyshev
	min_dist = 1.181650000000000e+00
	max_dist = 5.000000000000000e+00
	radial_basis_size = 8
	radial_funcs_count = 2
	radial_coeffs
		0-0
			{1.069437034930799e-01, -2.105335512946246e-01, 1.690364252069056e-01, -1.512070941608661e-01, 8.987289553315887e-02, -6.249700903440218e-02, 2.371648727842304e-02, -1.240038955922069e-02}
			{1.046895772361068e-02, -7.198332409169030e-02, 1.811655666144444e-02, -1.557671752197637e-02, -7.469565122931691e-03, 4.642293389002712e-03, -1.231716320094747e-02, 4.049176381412738e-03}
		0-1
			{4.388125194665975e-02, 8.755326072189931e-02, 5.834790544596215e-02, 5.930528863206425e-02, 3.276139569574439e-02, 2.514223418381588e-02, 1.024734391680240e-02, 4.384148146779089e-03}
			{-2.549832778343760e-01, -6.187140574372824e-01, -2.912505634785273e-01, -5.813943549896958e-01, -7.001356732348614e-02, -2.934563035974695e-01, -1.909442215878487e-02, -5.964434494480383e-02}
		1-0
			{2.599984912470974e-01, 5.581161424172818e-01, 2.885058878953173e-01, 5.533973101609195e-01, 7.825741649558171e-02, 2.714349086805848e-01, 2.569103068737643e-02, 6.261268708747489e-02}
			{2.684251350581303e-02, 1.236860367692414e-01, 5.018561745400076e-02, 3.242647914520329e-02, 2.397582431186155e-02, 1.427413463207904e-02, 3.721431616665981e-04, 9.765942819024390e-03}
		1-1
			{-2.152700435623754e-02, -7.955675311494725e-02, -2.437539213089292e-02, -2.927880555296460e-02, -2.269642633613545e-02, -4.135964190823399e-03, -3.786039133154624e-03, -3.295287026931424e-03}
			{2.764727161455487e-02, 7.478841298025914e-02, 2.533101356668903e-02, 2.419531839587992e-02, 1.489382295629403e-02, 1.893021494187332e-03, 2.323399134161474e-03, 1.902462068418367e-03}
alpha_moments_count = 18
alpha_index_basic_count = 11
alpha_index_basic = {{0, 0, 0, 0}, {0, 1, 0, 0}, {0, 0, 1, 0}, {0, 0, 0, 1}, {0, 2, 0, 0}, {0, 1, 1, 0}, {0, 1, 0, 1}, {0, 0, 2, 0}, {0, 0, 1, 1}, {0, 0, 0, 2}, {1, 0, 0, 0}}
alpha_index_times_count = 14
alpha_index_times = {{0, 0, 1, 11}, {1, 1, 1, 12}, {2, 2, 1, 12}, {3, 3, 1, 12}, {4, 4, 1, 13}, {5, 5, 2, 13}, {6, 6, 2, 13}, {7, 7, 1, 13}, {8, 8, 2, 13}, {9, 9, 1, 13}, {0, 10, 1, 14}, {0, 11, 1, 15}, {0, 12, 1, 16}, {0, 15, 1, 17}}
alpha_scalar_moments = 9
alpha_moment_mapping = {0, 10, 11, 12, 13, 14, 15, 16, 17}
species_coeffs = {-4.525755832777276, -5.468652648114099}
moment_coeffs = {18.72303725574995, 24.21453104884295, -21.83734497546326, 17.73529255990539, 6.236100127111587, -52.42400546688499, 27.12529554847644, -14.00883604255494, -11.84426992297373}