<GAP_2024_12_2_60_18_50_4_8>
<Potential label="GAP_2024_12_2_60_18_50_4_8" init_args="IP GAP label=GAP_2024_12_2_60_18_50_4_8" />
<GAP_params label="GAP_2024_12_2_60_18_50_4_8" gap_version="1721398290">
  <GAP_data do_core="F">
    <e0 Z="1" value="-.96999999999999997" />
    <e0 Z="2" value="-.96999999999999997" />
    <e0 Z="3" value="-.96999999999999997" />
    <e0 Z="4" value="-.96999999999999997" />
    <e0 Z="5" value="-.96999999999999997" />
    <e0 Z="6" value="-.96999999999999997" />
    <e0 Z="7" value="-.96999999999999997" />
    <e0 Z="8" value="-.96999999999999997" />
    <e0 Z="9" value="-.96999999999999997" />
    <e0 Z="10" value="-.96999999999999997" />
    <e0 Z="11" value="-.96999999999999997" />
    <e0 Z="12" value="-.96999999999999997" />
    <e0 Z="13" value="-.96999999999999997" />
    <e0 Z="14" value="-.96999999999999997" />
    <e0 Z="15" value="-.96999999999999997" />
    <e0 Z="16" value="-.96999999999999997" />
    <e0 Z="17" value="-.96999999999999997" />
    <e0 Z="18" value="-.96999999999999997" />
    <e0 Z="19" value="-.96999999999999997" />
    <e0 Z="20" value="-.96999999999999997" />
    <e0 Z="21" value="-.96999999999999997" />
    <e0 Z="22" value="-.96999999999999997" />
    <e0 Z="23" value="-.96999999999999997" />
    <e0 Z="24" value="-.96999999999999997" />
    <e0 Z="25" value="-.96999999999999997" />
    <e0 Z="26" value="-.96999999999999997" />
    <e0 Z="27" value="-.96999999999999997" />
    <e0 Z="28" value="-.96999999999999997" />
    <e0 Z="29" value="-.96999999999999997" />
    <e0 Z="30" value="-.96999999999999997" />
    <e0 Z="31" value="-.96999999999999997" />
    <e0 Z="32" value="-.96999999999999997" />
    <e0 Z="33" value="-.96999999999999997" />
    <e0 Z="34" value="-.96999999999999997" />
    <e0 Z="35" value="-.96999999999999997" />
    <e0 Z="36" value="-.96999999999999997" />
    <e0 Z="37" value="-.96999999999999997" />
    <e0 Z="38" value="-.96999999999999997" />
    <e0 Z="39" value="-.96999999999999997" />
    <e0 Z="40" value="-.96999999999999997" />
    <e0 Z="41" value="-.96999999999999997" />
    <e0 Z="42" value="-.96999999999999997" />
    <e0 Z="43" value="-.96999999999999997" />
    <e0 Z="44" value="-.96999999999999997" />
    <e0 Z="45" value="-.96999999999999997" />
    <e0 Z="46" value="-.96999999999999997" />
    <e0 Z="47" value="-.96999999999999997" />
    <e0 Z="48" value="-.96999999999999997" />
    <e0 Z="49" value="-.96999999999999997" />
    <e0 Z="50" value="-.96999999999999997" />
    <e0 Z="51" value="-.96999999999999997" />
    <e0 Z="52" value="-.96999999999999997" />
    <e0 Z="53" value="-.96999999999999997" />
    <e0 Z="54" value="-.96999999999999997" />
    <e0 Z="55" value="-.96999999999999997" />
    <e0 Z="56" value="-.96999999999999997" />
    <e0 Z="57" value="-.96999999999999997" />
    <e0 Z="58" value="-.96999999999999997" />
    <e0 Z="59" value="-.96999999999999997" />
    <e0 Z="60" value="-.96999999999999997" />
    <e0 Z="61" value="-.96999999999999997" />
    <e0 Z="62" value="-.96999999999999997" />
    <e0 Z="63" value="-.96999999999999997" />
    <e0 Z="64" value="-.96999999999999997" />
    <e0 Z="65" value="-.96999999999999997" />
    <e0 Z="66" value="-.96999999999999997" />
    <e0 Z="67" value="-.96999999999999997" />
    <e0 Z="68" value="-.96999999999999997" />
    <e0 Z="69" value="-.96999999999999997" />
    <e0 Z="70" value="-.96999999999999997" />
    <e0 Z="71" value="-.96999999999999997" />
    <e0 Z="72" value="-.96999999999999997" />
    <e0 Z="73" value="-.96999999999999997" />
    <e0 Z="74" value="-.96999999999999997" />
    <e0 Z="75" value="-.96999999999999997" />
    <e0 Z="76" value="-.96999999999999997" />
    <e0 Z="77" value="-.96999999999999997" />
    <e0 Z="78" value="-.96999999999999997" />
    <e0 Z="79" value="-.96999999999999997" />
    <e0 Z="80" value="-.96999999999999997" />
    <e0 Z="81" value="-.96999999999999997" />
    <e0 Z="82" value="-.96999999999999997" />
    <e0 Z="83" value="-.96999999999999997" />
    <e0 Z="84" value="-.96999999999999997" />
    <e0 Z="85" value="-.96999999999999997" />
    <e0 Z="86" value="-.96999999999999997" />
    <e0 Z="87" value="-.96999999999999997" />
    <e0 Z="88" value="-.96999999999999997" />
    <e0 Z="89" value="-.96999999999999997" />
    <e0 Z="90" value="-.96999999999999997" />
    <e0 Z="91" value="-.96999999999999997" />
    <e0 Z="92" value="-.96999999999999997" />
    <e0 Z="93" value="-.96999999999999997" />
    <e0 Z="94" value="-.96999999999999997" />
    <e0 Z="95" value="-.96999999999999997" />
    <e0 Z="96" value="-.96999999999999997" />
    <e0 Z="97" value="-.96999999999999997" />
    <e0 Z="98" value="-.96999999999999997" />
    <e0 Z="99" value="-.96999999999999997" />
    <e0 Z="100" value="-.96999999999999997" />
    <e0 Z="101" value="-.96999999999999997" />
    <e0 Z="102" value="-.96999999999999997" />
    <e0 Z="103" value="-.96999999999999997" />
    <e0 Z="104" value="-.96999999999999997" />
    <e0 Z="105" value="-.96999999999999997" />
    <e0 Z="106" value="-.96999999999999997" />
    <e0 Z="107" value="-.96999999999999997" />
    <e0 Z="108" value="-.96999999999999997" />
    <e0 Z="109" value="-.96999999999999997" />
    <e0 Z="110" value="-.96999999999999997" />
    <e0 Z="111" value="-.96999999999999997" />
    <e0 Z="112" value="-.96999999999999997" />
    <e0 Z="113" value="-.96999999999999997" />
    <e0 Z="114" value="-.96999999999999997" />
    <e0 Z="115" value="-.96999999999999997" />
    <e0 Z="116" value="-.96999999999999997" />
    <e0 Z="117" value="-.96999999999999997" />
    <e0 Z="118" value="-.96999999999999997" />
  </GAP_data>
  <gpSparse label="GAP_2024_12_2_60_18_50_4_8" n_coordinate="2" fitted="T">
    <gpCoordinates label="GAP_2024_12_2_60_18_50_4_81" dimensions="1225" signal_variance="1.0000000000000000" signal_mean=".00000000000000000E+000" sparsified="T" n_permutations="1" covariance_type="2" zeta="4.0000000000000000" n_sparseX="200" sparseX_filename="Si.soapparam" sparseX_md5sum="1ed223c784dec9a11bb49e2be9c7c49f">
      <descriptor>soap l_max=8 n_max=8 atom_sigma=0.5 zeta=4 cutoff=5.0 cutoff_transition_width=0.5 delta=1.0 f0=0.0 n_sparse=200 covariance_type=dot_product sparse_method=cur_points               n_species=2 Z=14 species_Z={14 8 }</descriptor>
      <permutation i="1">1  </permutation>
      <sparseX i="1" alpha="-24.213334574849473" sparseCutoff="1.0000000000000000" />
      <sparseX i="2" alpha="-8.0271862621476888" sparseCutoff="1.0000000000000000" />
      <sparseX i="3" alpha="11.774332675295810" sparseCutoff="1.0000000000000000" />
      <sparseX i="4" alpha="-21.611424921044758" sparseCutoff="1.0000000000000000" />
      <sparseX i="5" alpha="-44.037659733184071" sparseCutoff="1.0000000000000000" />
      <sparseX i="6" alpha="45.208706032326027" sparseCutoff="1.0000000000000000" />
      <sparseX i="7" alpha="-5.9383008784069640" sparseCutoff="1.0000000000000000" />
      <sparseX i="8" alpha="-12.620964417760254" sparseCutoff="1.0000000000000000" />
      <sparseX i="9" alpha="49.797952841057132" sparseCutoff="1.0000000000000000" />
      <sparseX i="10" alpha="4.0639514452029308" sparseCutoff="1.0000000000000000" />
      <sparseX i="11" alpha="63.692948828832535" sparseCutoff="1.0000000000000000" />
      <sparseX i="12" alpha="-51.036531290480745" sparseCutoff="1.0000000000000000" />
      <sparseX i="13" alpha="-3.0565303994129858" sparseCutoff="1.0000000000000000" />
      <sparseX i="14" alpha="17.987954126386640" sparseCutoff="1.0000000000000000" />
      <sparseX i="15" alpha="60.755954742542201" sparseCutoff="1.0000000000000000" />
      <sparseX i="16" alpha="17.088393056169441" sparseCutoff="1.0000000000000000" />
      <sparseX i="17" alpha="-59.438082522499492" sparseCutoff="1.0000000000000000" />
      <sparseX i="18" alpha="8.0336372432381413" sparseCutoff="1.0000000000000000" />
      <sparseX i="19" alpha="9.8673223952798246" sparseCutoff="1.0000000000000000" />
      <sparseX i="20" alpha="-6.2109899301902516" sparseCutoff="1.0000000000000000" />
      <sparseX i="21" alpha="21.971714347747323" sparseCutoff="1.0000000000000000" />
      <sparseX i="22" alpha="-2.8557226117752945" sparseCutoff="1.0000000000000000" />
      <sparseX i="23" alpha="-6.5557552049667489" sparseCutoff="1.0000000000000000" />
      <sparseX i="24" alpha="18.079061955728307" sparseCutoff="1.0000000000000000" />
      <sparseX i="25" alpha="29.827452665963715" sparseCutoff="1.0000000000000000" />
      <sparseX i="26" alpha="9.9781089407706958" sparseCutoff="1.0000000000000000" />
      <sparseX i="27" alpha="-22.182263697110084" sparseCutoff="1.0000000000000000" />
      <sparseX i="28" alpha="38.650088864035304" sparseCutoff="1.0000000000000000" />
      <sparseX i="29" alpha="-29.783436083862551" sparseCutoff="1.0000000000000000" />
      <sparseX i="30" alpha="51.780881182680609" sparseCutoff="1.0000000000000000" />
      <sparseX i="31" alpha="14.698098538711854" sparseCutoff="1.0000000000000000" />
      <sparseX i="32" alpha="25.986349721673065" sparseCutoff="1.0000000000000000" />
      <sparseX i="33" alpha="-55.538354109445223" sparseCutoff="1.0000000000000000" />
      <sparseX i="34" alpha="-59.799676629942923" sparseCutoff="1.0000000000000000" />
      <sparseX i="35" alpha="39.510969703534620" sparseCutoff="1.0000000000000000" />
      <sparseX i="36" alpha="19.913991695688811" sparseCutoff="1.0000000000000000" />
      <sparseX i="37" alpha="35.893529127631716" sparseCutoff="1.0000000000000000" />
      <sparseX i="38" alpha="-45.542658251207094" sparseCutoff="1.0000000000000000" />
      <sparseX i="39" alpha="-14.846810113016685" sparseCutoff="1.0000000000000000" />
      <sparseX i="40" alpha="16.414043598300591" sparseCutoff="1.0000000000000000" />
      <sparseX i="41" alpha="34.119947676357931" sparseCutoff="1.0000000000000000" />
      <sparseX i="42" alpha="-79.077987397133271" sparseCutoff="1.0000000000000000" />
      <sparseX i="43" alpha="-63.818980029530998" sparseCutoff="1.0000000000000000" />
      <sparseX i="44" alpha="22.445689492398394" sparseCutoff="1.0000000000000000" />
      <sparseX i="45" alpha="26.992946137956118" sparseCutoff="1.0000000000000000" />
      <sparseX i="46" alpha="-9.4513588018324342" sparseCutoff="1.0000000000000000" />
      <sparseX i="47" alpha="-30.664397283168530" sparseCutoff="1.0000000000000000" />
      <sparseX i="48" alpha="-17.124257392520516" sparseCutoff="1.0000000000000000" />
      <sparseX i="49" alpha="-30.485664844343813" sparseCutoff="1.0000000000000000" />
      <sparseX i="50" alpha="33.023491058244005" sparseCutoff="1.0000000000000000" />
      <sparseX i="51" alpha="-32.162809301032972" sparseCutoff="1.0000000000000000" />
      <sparseX i="52" alpha="38.276476146316782" sparseCutoff="1.0000000000000000" />
      <sparseX i="53" alpha="-31.670997447292514" sparseCutoff="1.0000000000000000" />
      <sparseX i="54" alpha="46.687940375047106" sparseCutoff="1.0000000000000000" />
      <sparseX i="55" alpha="55.456202985199518" sparseCutoff="1.0000000000000000" />
      <sparseX i="56" alpha=".18611685763767132E-001" sparseCutoff="1.0000000000000000" />
      <sparseX i="57" alpha="109.44642972652123" sparseCutoff="1.0000000000000000" />
      <sparseX i="58" alpha="-105.20446377391998" sparseCutoff="1.0000000000000000" />
      <sparseX i="59" alpha="39.989302579704990" sparseCutoff="1.0000000000000000" />
      <sparseX i="60" alpha="-30.544699389422174" sparseCutoff="1.0000000000000000" />
      <sparseX i="61" alpha="-3.7806649824668868" sparseCutoff="1.0000000000000000" />
      <sparseX i="62" alpha="-23.088277866744722" sparseCutoff="1.0000000000000000" />
      <sparseX i="63" alpha="-37.563334932487152" sparseCutoff="1.0000000000000000" />
      <sparseX i="64" alpha="4.0606636744432274" sparseCutoff="1.0000000000000000" />
      <sparseX i="65" alpha="-31.587773735518969" sparseCutoff="1.0000000000000000" />
      <sparseX i="66" alpha="38.208137149767609" sparseCutoff="1.0000000000000000" />
      <sparseX i="67" alpha="-124.79421970532997" sparseCutoff="1.0000000000000000" />
      <sparseX i="68" alpha="67.263411224021993" sparseCutoff="1.0000000000000000" />
      <sparseX i="69" alpha="31.809403742505207" sparseCutoff="1.0000000000000000" />
      <sparseX i="70" alpha="4.9498200051057779" sparseCutoff="1.0000000000000000" />
      <sparseX i="71" alpha="-45.331024537365316" sparseCutoff="1.0000000000000000" />
      <sparseX i="72" alpha="-22.174401068112747" sparseCutoff="1.0000000000000000" />
      <sparseX i="73" alpha="39.469344806865188" sparseCutoff="1.0000000000000000" />
      <sparseX i="74" alpha="38.205650673699061" sparseCutoff="1.0000000000000000" />
      <sparseX i="75" alpha="-55.717755037517790" sparseCutoff="1.0000000000000000" />
      <sparseX i="76" alpha="9.6186109196609291" sparseCutoff="1.0000000000000000" />
      <sparseX i="77" alpha="-1.5193124119423609" sparseCutoff="1.0000000000000000" />
      <sparseX i="78" alpha="44.783152496749857" sparseCutoff="1.0000000000000000" />
      <sparseX i="79" alpha="-28.160415111169240" sparseCutoff="1.0000000000000000" />
      <sparseX i="80" alpha="-10.752244419825617" sparseCutoff="1.0000000000000000" />
      <sparseX i="81" alpha="16.646622957058927" sparseCutoff="1.0000000000000000" />
      <sparseX i="82" alpha="-4.0789745364268590" sparseCutoff="1.0000000000000000" />
      <sparseX i="83" alpha="-30.066987116038639" sparseCutoff="1.0000000000000000" />
      <sparseX i="84" alpha="-86.616106787202000" sparseCutoff="1.0000000000000000" />
      <sparseX i="85" alpha="62.206040096668680" sparseCutoff="1.0000000000000000" />
      <sparseX i="86" alpha="62.615976400788988" sparseCutoff="1.0000000000000000" />
      <sparseX i="87" alpha="-61.694835940983417" sparseCutoff="1.0000000000000000" />
      <sparseX i="88" alpha="-17.517378499306396" sparseCutoff="1.0000000000000000" />
      <sparseX i="89" alpha="-22.696862744469048" sparseCutoff="1.0000000000000000" />
      <sparseX i="90" alpha="6.8238509688109383" sparseCutoff="1.0000000000000000" />
      <sparseX i="91" alpha="16.918318912271637" sparseCutoff="1.0000000000000000" />
      <sparseX i="92" alpha="13.988641671768304" sparseCutoff="1.0000000000000000" />
      <sparseX i="93" alpha="30.954670389877506" sparseCutoff="1.0000000000000000" />
      <sparseX i="94" alpha="16.726559631640747" sparseCutoff="1.0000000000000000" />
      <sparseX i="95" alpha="5.2375309036690050" sparseCutoff="1.0000000000000000" />
      <sparseX i="96" alpha="-31.175312675259796" sparseCutoff="1.0000000000000000" />
      <sparseX i="97" alpha="-12.169673720838782" sparseCutoff="1.0000000000000000" />
      <sparseX i="98" alpha="4.2606937455576039" sparseCutoff="1.0000000000000000" />
      <sparseX i="99" alpha="-17.932880691470210" sparseCutoff="1.0000000000000000" />
      <sparseX i="100" alpha="50.102065173408796" sparseCutoff="1.0000000000000000" />
      <sparseX i="101" alpha="1.0652542818512489" sparseCutoff="1.0000000000000000" />
      <sparseX i="102" alpha="-19.000791707771899" sparseCutoff="1.0000000000000000" />
      <sparseX i="103" alpha="15.035079133303855" sparseCutoff="1.0000000000000000" />
      <sparseX i="104" alpha="25.220660897727566" sparseCutoff="1.0000000000000000" />
      <sparseX i="105" alpha="1.2601979932273233" sparseCutoff="1.0000000000000000" />
      <sparseX i="106" alpha="53.989468082236584" sparseCutoff="1.0000000000000000" />
      <sparseX i="107" alpha="13.645361238727578" sparseCutoff="1.0000000000000000" />
      <sparseX i="108" alpha="1.4116962264305126" sparseCutoff="1.0000000000000000" />
      <sparseX i="109" alpha="15.943135904547022" sparseCutoff="1.0000000000000000" />
      <sparseX i="110" alpha="2.8046980717980152" sparseCutoff="1.0000000000000000" />
      <sparseX i="111" alpha=".68518589607248848" sparseCutoff="1.0000000000000000" />
      <sparseX i="112" alpha="715.76549540617543" sparseCutoff="1.0000000000000000" />
      <sparseX i="113" alpha="-674.23838503492527" sparseCutoff="1.0000000000000000" />
      <sparseX i="114" alpha="7.0047440464429798" sparseCutoff="1.0000000000000000" />
      <sparseX i="115" alpha="-46.793948820998637" sparseCutoff="1.0000000000000000" />
      <sparseX i="116" alpha="-19.819968412393660" sparseCutoff="1.0000000000000000" />
      <sparseX i="117" alpha="55.030544122822633" sparseCutoff="1.0000000000000000" />
      <sparseX i="118" alpha="-6.4745645171207586" sparseCutoff="1.0000000000000000" />
      <sparseX i="119" alpha="-30.355545246791955" sparseCutoff="1.0000000000000000" />
      <sparseX i="120" alpha="-57.713486970833628" sparseCutoff="1.0000000000000000" />
      <sparseX i="121" alpha="8.7909421268931851" sparseCutoff="1.0000000000000000" />
      <sparseX i="122" alpha="19.538260529639697" sparseCutoff="1.0000000000000000" />
      <sparseX i="123" alpha="-29.999078375976545" sparseCutoff="1.0000000000000000" />
      <sparseX i="124" alpha="34.866307960465690" sparseCutoff="1.0000000000000000" />
      <sparseX i="125" alpha="-19.202170106601713" sparseCutoff="1.0000000000000000" />
      <sparseX i="126" alpha="-29.294428030816302" sparseCutoff="1.0000000000000000" />
      <sparseX i="127" alpha="6.9035864045387694" sparseCutoff="1.0000000000000000" />
      <sparseX i="128" alpha="56.434577405485506" sparseCutoff="1.0000000000000000" />
      <sparseX i="129" alpha="-45.981218292121319" sparseCutoff="1.0000000000000000" />
      <sparseX i="130" alpha="2.5169568825179969" sparseCutoff="1.0000000000000000" />
      <sparseX i="131" alpha="-32.735873763420308" sparseCutoff="1.0000000000000000" />
      <sparseX i="132" alpha="36.452659191388427" sparseCutoff="1.0000000000000000" />
      <sparseX i="133" alpha="4.8108412466796127" sparseCutoff="1.0000000000000000" />
      <sparseX i="134" alpha="3.4699633863100319" sparseCutoff="1.0000000000000000" />
      <sparseX i="135" alpha="15.390962418193016" sparseCutoff="1.0000000000000000" />
      <sparseX i="136" alpha="2.5877439887016496" sparseCutoff="1.0000000000000000" />
      <sparseX i="137" alpha="29.298479006456851" sparseCutoff="1.0000000000000000" />
      <sparseX i="138" alpha="47.812540836150603" sparseCutoff="1.0000000000000000" />
      <sparseX i="139" alpha="-34.431260792910862" sparseCutoff="1.0000000000000000" />
      <sparseX i="140" alpha="14.884057090406644" sparseCutoff="1.0000000000000000" />
      <sparseX i="141" alpha="-39.761043006196665" sparseCutoff="1.0000000000000000" />
      <sparseX i="142" alpha="-12.851085250331872" sparseCutoff="1.0000000000000000" />
      <sparseX i="143" alpha="24.152533832809134" sparseCutoff="1.0000000000000000" />
      <sparseX i="144" alpha="62.408850250796320" sparseCutoff="1.0000000000000000" />
      <sparseX i="145" alpha="19.910119555254202" sparseCutoff="1.0000000000000000" />
      <sparseX i="146" alpha="25.340282872012082" sparseCutoff="1.0000000000000000" />
      <sparseX i="147" alpha="-81.861515535349270" sparseCutoff="1.0000000000000000" />
      <sparseX i="148" alpha="30.917492103513620" sparseCutoff="1.0000000000000000" />
      <sparseX i="149" alpha="-46.777004503301946" sparseCutoff="1.0000000000000000" />
      <sparseX i="150" alpha="23.706693075575554" sparseCutoff="1.0000000000000000" />
      <sparseX i="151" alpha="-15.872269096316252" sparseCutoff="1.0000000000000000" />
      <sparseX i="152" alpha="23.503849050368444" sparseCutoff="1.0000000000000000" />
      <sparseX i="153" alpha="-82.372697780100097" sparseCutoff="1.0000000000000000" />
      <sparseX i="154" alpha="6.2871286751756914" sparseCutoff="1.0000000000000000" />
      <sparseX i="155" alpha="2.0875547254886002" sparseCutoff="1.0000000000000000" />
      <sparseX i="156" alpha=".15603827961312819" sparseCutoff="1.0000000000000000" />
      <sparseX i="157" alpha="-6.4697215436962781" sparseCutoff="1.0000000000000000" />
      <sparseX i="158" alpha="34.498863645987001" sparseCutoff="1.0000000000000000" />
      <sparseX i="159" alpha="-27.887932759779559" sparseCutoff="1.0000000000000000" />
      <sparseX i="160" alpha="11.885832593270528" sparseCutoff="1.0000000000000000" />
      <sparseX i="161" alpha="-6.0541239265799511" sparseCutoff="1.0000000000000000" />
      <sparseX i="162" alpha="-24.519595334513113" sparseCutoff="1.0000000000000000" />
      <sparseX i="163" alpha="-.78352081162873655" sparseCutoff="1.0000000000000000" />
      <sparseX i="164" alpha="18.289222819087229" sparseCutoff="1.0000000000000000" />
      <sparseX i="165" alpha="-14.579698102562800" sparseCutoff="1.0000000000000000" />
      <sparseX i="166" alpha="-6.7657543910984463" sparseCutoff="1.0000000000000000" />
      <sparseX i="167" alpha="33.962290161627905" sparseCutoff="1.0000000000000000" />
      <sparseX i="168" alpha="-58.464542078580102" sparseCutoff="1.0000000000000000" />
      <sparseX i="169" alpha="-32.689140701107370" sparseCutoff="1.0000000000000000" />
      <sparseX i="170" alpha="-21.765007598370353" sparseCutoff="1.0000000000000000" />
      <sparseX i="171" alpha="309.15499488277169" sparseCutoff="1.0000000000000000" />
      <sparseX i="172" alpha="-135.95754740435919" sparseCutoff="1.0000000000000000" />
      <sparseX i="173" alpha="-140.27723219776072" sparseCutoff="1.0000000000000000" />
      <sparseX i="174" alpha="-3.8510260348119441" sparseCutoff="1.0000000000000000" />
      <sparseX i="175" alpha="-35.382720410638932" sparseCutoff="1.0000000000000000" />
      <sparseX i="176" alpha="26.860004809956262" sparseCutoff="1.0000000000000000" />
      <sparseX i="177" alpha="1.3802643387980484" sparseCutoff="1.0000000000000000" />
      <sparseX i="178" alpha="-17.075710239452935" sparseCutoff="1.0000000000000000" />
      <sparseX i="179" alpha="3.0610796416139894" sparseCutoff="1.0000000000000000" />
      <sparseX i="180" alpha="-46.672086991076768" sparseCutoff="1.0000000000000000" />
      <sparseX i="181" alpha="67.941254262024884" sparseCutoff="1.0000000000000000" />
      <sparseX i="182" alpha="-16.409731128515329" sparseCutoff="1.0000000000000000" />
      <sparseX i="183" alpha="-5.9571242797006256" sparseCutoff="1.0000000000000000" />
      <sparseX i="184" alpha="-18.443255106316048" sparseCutoff="1.0000000000000000" />
      <sparseX i="185" alpha="10.166397823461995" sparseCutoff="1.0000000000000000" />
      <sparseX i="186" alpha="-130.55329614830708" sparseCutoff="1.0000000000000000" />
      <sparseX i="187" alpha="112.50672499017888" sparseCutoff="1.0000000000000000" />
      <sparseX i="188" alpha="-27.599756374472168" sparseCutoff="1.0000000000000000" />
      <sparseX i="189" alpha="-5.4141157353427909" sparseCutoff="1.0000000000000000" />
      <sparseX i="190" alpha="-28.505278271962847" sparseCutoff="1.0000000000000000" />
      <sparseX i="191" alpha="-9.4854384394544731" sparseCutoff="1.0000000000000000" />
      <sparseX i="192" alpha="20.524476251515537" sparseCutoff="1.0000000000000000" />
      <sparseX i="193" alpha="-6.8094301622805062" sparseCutoff="1.0000000000000000" />
      <sparseX i="194" alpha="22.035482295414109" sparseCutoff="1.0000000000000000" />
      <sparseX i="195" alpha="-17.713526712409788" sparseCutoff="1.0000000000000000" />
      <sparseX i="196" alpha="41.467479462239794" sparseCutoff="1.0000000000000000" />
      <sparseX i="197" alpha="16.659067553380648" sparseCutoff="1.0000000000000000" />
      <sparseX i="198" alpha="1.4893608546025923" sparseCutoff="1.0000000000000000" />
      <sparseX i="199" alpha="-6.6649049951531962" sparseCutoff="1.0000000000000000" />
      <sparseX i="200" alpha="-2.5815073941174753" sparseCutoff="1.0000000000000000" />
    </gpCoordinates>
    <gpCoordinates label="GAP_2024_12_2_60_18_50_4_82" dimensions="1225" signal_variance="1.0000000000000000" signal_mean=".00000000000000000E+000" sparsified="T" n_permutations="1" covariance_type="2" zeta="4.0000000000000000" n_sparseX="200" sparseX_filename="O.soapparam" sparseX_md5sum="d00f2e80a547c7a07dee85ab2e487976">
      <descriptor>soap l_max=8 n_max=8 atom_sigma=0.5 zeta=4 cutoff=5.0 cutoff_transition_width=0.5 delta=1.0 f0=0.0 n_sparse=200 covariance_type=dot_product sparse_method=cur_points               n_species=2 Z=8 species_Z={14 8 }</descriptor>
      <permutation i="1">1  </permutation>
      <sparseX i="1" alpha="26.812858638633411" sparseCutoff="1.0000000000000000" />
      <sparseX i="2" alpha="3.6387423424669851" sparseCutoff="1.0000000000000000" />
      <sparseX i="3" alpha="10.010425146643414" sparseCutoff="1.0000000000000000" />
      <sparseX i="4" alpha="-92.903277176154219" sparseCutoff="1.0000000000000000" />
      <sparseX i="5" alpha="36.558098087258038" sparseCutoff="1.0000000000000000" />
      <sparseX i="6" alpha="38.103547210303155" sparseCutoff="1.0000000000000000" />
      <sparseX i="7" alpha="21.536728098019374" sparseCutoff="1.0000000000000000" />
      <sparseX i="8" alpha="-65.699326541782170" sparseCutoff="1.0000000000000000" />
      <sparseX i="9" alpha="-43.189604258444568" sparseCutoff="1.0000000000000000" />
      <sparseX i="10" alpha="-9.3759919619697527" sparseCutoff="1.0000000000000000" />
      <sparseX i="11" alpha="15.817001547814350" sparseCutoff="1.0000000000000000" />
      <sparseX i="12" alpha="28.987447281413196" sparseCutoff="1.0000000000000000" />
      <sparseX i="13" alpha="-13.623976861628378" sparseCutoff="1.0000000000000000" />
      <sparseX i="14" alpha="-23.886712273978326" sparseCutoff="1.0000000000000000" />
      <sparseX i="15" alpha="6.2858176850946048" sparseCutoff="1.0000000000000000" />
      <sparseX i="16" alpha="-9.4130124383501439" sparseCutoff="1.0000000000000000" />
      <sparseX i="17" alpha="-12.705492132871488" sparseCutoff="1.0000000000000000" />
      <sparseX i="18" alpha="-10.462803353808026" sparseCutoff="1.0000000000000000" />
      <sparseX i="19" alpha="-9.7284344116006185" sparseCutoff="1.0000000000000000" />
      <sparseX i="20" alpha="36.640451948495290" sparseCutoff="1.0000000000000000" />
      <sparseX i="21" alpha="45.031335383425578" sparseCutoff="1.0000000000000000" />
      <sparseX i="22" alpha="12.382937260987168" sparseCutoff="1.0000000000000000" />
      <sparseX i="23" alpha="-32.634281960283765" sparseCutoff="1.0000000000000000" />
      <sparseX i="24" alpha="-30.997466295044955" sparseCutoff="1.0000000000000000" />
      <sparseX i="25" alpha="-50.841956186183261" sparseCutoff="1.0000000000000000" />
      <sparseX i="26" alpha="22.143955325687045" sparseCutoff="1.0000000000000000" />
      <sparseX i="27" alpha="-46.381114834523622" sparseCutoff="1.0000000000000000" />
      <sparseX i="28" alpha="-55.115190044439942" sparseCutoff="1.0000000000000000" />
      <sparseX i="29" alpha="3.1364257671402584" sparseCutoff="1.0000000000000000" />
      <sparseX i="30" alpha="91.359362876443129" sparseCutoff="1.0000000000000000" />
      <sparseX i="31" alpha="-19.020882269561323" sparseCutoff="1.0000000000000000" />
      <sparseX i="32" alpha="1.7036554764536360" sparseCutoff="1.0000000000000000" />
      <sparseX i="33" alpha="-60.057186801737075" sparseCutoff="1.0000000000000000" />
      <sparseX i="34" alpha="-6.1551722859853362" sparseCutoff="1.0000000000000000" />
      <sparseX i="35" alpha="15.185436929844021" sparseCutoff="1.0000000000000000" />
      <sparseX i="36" alpha="-13.197922909227778" sparseCutoff="1.0000000000000000" />
      <sparseX i="37" alpha="21.827233169683954" sparseCutoff="1.0000000000000000" />
      <sparseX i="38" alpha="24.916219247681333" sparseCutoff="1.0000000000000000" />
      <sparseX i="39" alpha="9.1477664351658916" sparseCutoff="1.0000000000000000" />
      <sparseX i="40" alpha="78.210589850810251" sparseCutoff="1.0000000000000000" />
      <sparseX i="41" alpha="-68.032573430762213" sparseCutoff="1.0000000000000000" />
      <sparseX i="42" alpha="-.50509995014463771" sparseCutoff="1.0000000000000000" />
      <sparseX i="43" alpha="27.391102533374262" sparseCutoff="1.0000000000000000" />
      <sparseX i="44" alpha="-25.128696798176602" sparseCutoff="1.0000000000000000" />
      <sparseX i="45" alpha="39.324346364583057" sparseCutoff="1.0000000000000000" />
      <sparseX i="46" alpha="-93.209357596968388" sparseCutoff="1.0000000000000000" />
      <sparseX i="47" alpha="43.511666611472357" sparseCutoff="1.0000000000000000" />
      <sparseX i="48" alpha="-18.537445329949669" sparseCutoff="1.0000000000000000" />
      <sparseX i="49" alpha=".88829625439228022" sparseCutoff="1.0000000000000000" />
      <sparseX i="50" alpha="15.575379436954668" sparseCutoff="1.0000000000000000" />
      <sparseX i="51" alpha="-12.593197436934082" sparseCutoff="1.0000000000000000" />
      <sparseX i="52" alpha="52.074316848662356" sparseCutoff="1.0000000000000000" />
      <sparseX i="53" alpha="-26.424036491628073" sparseCutoff="1.0000000000000000" />
      <sparseX i="54" alpha="-6.7502203660246858" sparseCutoff="1.0000000000000000" />
      <sparseX i="55" alpha="11.191942714704265" sparseCutoff="1.0000000000000000" />
      <sparseX i="56" alpha="49.801863894856659" sparseCutoff="1.0000000000000000" />
      <sparseX i="57" alpha="-19.165989964464153" sparseCutoff="1.0000000000000000" />
      <sparseX i="58" alpha="11.316283288474811" sparseCutoff="1.0000000000000000" />
      <sparseX i="59" alpha="-15.406519281286927" sparseCutoff="1.0000000000000000" />
      <sparseX i="60" alpha="-30.035611346636369" sparseCutoff="1.0000000000000000" />
      <sparseX i="61" alpha="-39.645693485720955" sparseCutoff="1.0000000000000000" />
      <sparseX i="62" alpha="-101.19145825520518" sparseCutoff="1.0000000000000000" />
      <sparseX i="63" alpha="-19.089134270506712" sparseCutoff="1.0000000000000000" />
      <sparseX i="64" alpha="57.831850336368724" sparseCutoff="1.0000000000000000" />
      <sparseX i="65" alpha="-39.808199850585652" sparseCutoff="1.0000000000000000" />
      <sparseX i="66" alpha="-26.957122683312218" sparseCutoff="1.0000000000000000" />
      <sparseX i="67" alpha="45.401620763261121" sparseCutoff="1.0000000000000000" />
      <sparseX i="68" alpha="-30.053251265861785" sparseCutoff="1.0000000000000000" />
      <sparseX i="69" alpha="42.415353825352334" sparseCutoff="1.0000000000000000" />
      <sparseX i="70" alpha="135.03930632431593" sparseCutoff="1.0000000000000000" />
      <sparseX i="71" alpha="51.223461421692861" sparseCutoff="1.0000000000000000" />
      <sparseX i="72" alpha="-5.7234931213225293" sparseCutoff="1.0000000000000000" />
      <sparseX i="73" alpha="-35.814422077739422" sparseCutoff="1.0000000000000000" />
      <sparseX i="74" alpha="-7.9323934583403020" sparseCutoff="1.0000000000000000" />
      <sparseX i="75" alpha="415.19787051657670" sparseCutoff="1.0000000000000000" />
      <sparseX i="76" alpha="-518.50443060049224" sparseCutoff="1.0000000000000000" />
      <sparseX i="77" alpha="170.79336775869245" sparseCutoff="1.0000000000000000" />
      <sparseX i="78" alpha="62.529236049842019" sparseCutoff="1.0000000000000000" />
      <sparseX i="79" alpha="-7.0723096300154147" sparseCutoff="1.0000000000000000" />
      <sparseX i="80" alpha="-24.525926038250009" sparseCutoff="1.0000000000000000" />
      <sparseX i="81" alpha="-.50373869239220115" sparseCutoff="1.0000000000000000" />
      <sparseX i="82" alpha="13.724228878117440" sparseCutoff="1.0000000000000000" />
      <sparseX i="83" alpha="-3.2676426043730702" sparseCutoff="1.0000000000000000" />
      <sparseX i="84" alpha="13.562372489320817" sparseCutoff="1.0000000000000000" />
      <sparseX i="85" alpha="78.042660252366801" sparseCutoff="1.0000000000000000" />
      <sparseX i="86" alpha="30.026068332062557" sparseCutoff="1.0000000000000000" />
      <sparseX i="87" alpha="46.398779487438588" sparseCutoff="1.0000000000000000" />
      <sparseX i="88" alpha="126.24420340892243" sparseCutoff="1.0000000000000000" />
      <sparseX i="89" alpha="-36.118870470340177" sparseCutoff="1.0000000000000000" />
      <sparseX i="90" alpha="-7.8154880624298926" sparseCutoff="1.0000000000000000" />
      <sparseX i="91" alpha="-23.583585285384007" sparseCutoff="1.0000000000000000" />
      <sparseX i="92" alpha="-81.430321239745808" sparseCutoff="1.0000000000000000" />
      <sparseX i="93" alpha="30.358549959738998" sparseCutoff="1.0000000000000000" />
      <sparseX i="94" alpha="-46.464722618795882" sparseCutoff="1.0000000000000000" />
      <sparseX i="95" alpha="-38.760461495581396" sparseCutoff="1.0000000000000000" />
      <sparseX i="96" alpha="14.969879443916863" sparseCutoff="1.0000000000000000" />
      <sparseX i="97" alpha="-33.175106971183688" sparseCutoff="1.0000000000000000" />
      <sparseX i="98" alpha="25.567786784861962" sparseCutoff="1.0000000000000000" />
      <sparseX i="99" alpha="18.152112789128342" sparseCutoff="1.0000000000000000" />
      <sparseX i="100" alpha="59.480557953143474" sparseCutoff="1.0000000000000000" />
      <sparseX i="101" alpha="49.174434106841687" sparseCutoff="1.0000000000000000" />
      <sparseX i="102" alpha="-35.742651565773066" sparseCutoff="1.0000000000000000" />
      <sparseX i="103" alpha="36.316300009991885" sparseCutoff="1.0000000000000000" />
      <sparseX i="104" alpha=".56552928521261914" sparseCutoff="1.0000000000000000" />
      <sparseX i="105" alpha="-33.612026026042962" sparseCutoff="1.0000000000000000" />
      <sparseX i="106" alpha="-26.028744291757864" sparseCutoff="1.0000000000000000" />
      <sparseX i="107" alpha="35.173356617693500" sparseCutoff="1.0000000000000000" />
      <sparseX i="108" alpha="18.881556601464489" sparseCutoff="1.0000000000000000" />
      <sparseX i="109" alpha="39.712839723843210" sparseCutoff="1.0000000000000000" />
      <sparseX i="110" alpha="35.561173317828981" sparseCutoff="1.0000000000000000" />
      <sparseX i="111" alpha="-53.211092781196328" sparseCutoff="1.0000000000000000" />
      <sparseX i="112" alpha="-42.910826748113259" sparseCutoff="1.0000000000000000" />
      <sparseX i="113" alpha="-146.04904277490004" sparseCutoff="1.0000000000000000" />
      <sparseX i="114" alpha="10.041987999967711" sparseCutoff="1.0000000000000000" />
      <sparseX i="115" alpha="-80.956297676323175" sparseCutoff="1.0000000000000000" />
      <sparseX i="116" alpha="150.73993835195358" sparseCutoff="1.0000000000000000" />
      <sparseX i="117" alpha="1.6318977629912856" sparseCutoff="1.0000000000000000" />
      <sparseX i="118" alpha="11.741082002910556" sparseCutoff="1.0000000000000000" />
      <sparseX i="119" alpha="-21.856350626424302" sparseCutoff="1.0000000000000000" />
      <sparseX i="120" alpha="2.6026337002991440" sparseCutoff="1.0000000000000000" />
      <sparseX i="121" alpha="-43.352081958402486" sparseCutoff="1.0000000000000000" />
      <sparseX i="122" alpha="-6.8042596172259442" sparseCutoff="1.0000000000000000" />
      <sparseX i="123" alpha="62.862082408546357" sparseCutoff="1.0000000000000000" />
      <sparseX i="124" alpha="106.09658582654561" sparseCutoff="1.0000000000000000" />
      <sparseX i="125" alpha="-107.93586041775205" sparseCutoff="1.0000000000000000" />
      <sparseX i="126" alpha="-49.430650820345477" sparseCutoff="1.0000000000000000" />
      <sparseX i="127" alpha="8.8937460288441894" sparseCutoff="1.0000000000000000" />
      <sparseX i="128" alpha="12.116128761054584" sparseCutoff="1.0000000000000000" />
      <sparseX i="129" alpha="76.219479483153563" sparseCutoff="1.0000000000000000" />
      <sparseX i="130" alpha="-10.235079557267371" sparseCutoff="1.0000000000000000" />
      <sparseX i="131" alpha="2.6079824523722808" sparseCutoff="1.0000000000000000" />
      <sparseX i="132" alpha="-50.241573785659220" sparseCutoff="1.0000000000000000" />
      <sparseX i="133" alpha="2.7737550842061292" sparseCutoff="1.0000000000000000" />
      <sparseX i="134" alpha="50.206957849825329" sparseCutoff="1.0000000000000000" />
      <sparseX i="135" alpha="2.2486320994776805" sparseCutoff="1.0000000000000000" />
      <sparseX i="136" alpha="-10.810138708133895" sparseCutoff="1.0000000000000000" />
      <sparseX i="137" alpha="-7.2676296454031801" sparseCutoff="1.0000000000000000" />
      <sparseX i="138" alpha="4.7187775612606755" sparseCutoff="1.0000000000000000" />
      <sparseX i="139" alpha="26.749052898449591" sparseCutoff="1.0000000000000000" />
      <sparseX i="140" alpha="89.580471849281082" sparseCutoff="1.0000000000000000" />
      <sparseX i="141" alpha="-96.050585754150944" sparseCutoff="1.0000000000000000" />
      <sparseX i="142" alpha="2.0360184905228143" sparseCutoff="1.0000000000000000" />
      <sparseX i="143" alpha="-2.7644716464409331" sparseCutoff="1.0000000000000000" />
      <sparseX i="144" alpha="23.650860125866068" sparseCutoff="1.0000000000000000" />
      <sparseX i="145" alpha="-29.587815393946347" sparseCutoff="1.0000000000000000" />
      <sparseX i="146" alpha="-3.6499484015933819" sparseCutoff="1.0000000000000000" />
      <sparseX i="147" alpha="-30.957168762358368" sparseCutoff="1.0000000000000000" />
      <sparseX i="148" alpha="16.018230649728061" sparseCutoff="1.0000000000000000" />
      <sparseX i="149" alpha="-34.968463136735743" sparseCutoff="1.0000000000000000" />
      <sparseX i="150" alpha="-10.576618536728581" sparseCutoff="1.0000000000000000" />
      <sparseX i="151" alpha="-25.345780735648471" sparseCutoff="1.0000000000000000" />
      <sparseX i="152" alpha="41.932557161855925" sparseCutoff="1.0000000000000000" />
      <sparseX i="153" alpha="-7.5476979636369652" sparseCutoff="1.0000000000000000" />
      <sparseX i="154" alpha="-47.384681509145842" sparseCutoff="1.0000000000000000" />
      <sparseX i="155" alpha="-31.717723218008970" sparseCutoff="1.0000000000000000" />
      <sparseX i="156" alpha="17.638442621794322" sparseCutoff="1.0000000000000000" />
      <sparseX i="157" alpha="-12.316468027506568" sparseCutoff="1.0000000000000000" />
      <sparseX i="158" alpha="58.621193042425503" sparseCutoff="1.0000000000000000" />
      <sparseX i="159" alpha="29.698189649667409" sparseCutoff="1.0000000000000000" />
      <sparseX i="160" alpha="-17.173641159997956" sparseCutoff="1.0000000000000000" />
      <sparseX i="161" alpha="18.130687822087580" sparseCutoff="1.0000000000000000" />
      <sparseX i="162" alpha="-50.541004726300443" sparseCutoff="1.0000000000000000" />
      <sparseX i="163" alpha="-.76122324663219343" sparseCutoff="1.0000000000000000" />
      <sparseX i="164" alpha="8.4379127721046263" sparseCutoff="1.0000000000000000" />
      <sparseX i="165" alpha="14.496861924815931" sparseCutoff="1.0000000000000000" />
      <sparseX i="166" alpha="-27.263730404282171" sparseCutoff="1.0000000000000000" />
      <sparseX i="167" alpha="-13.499141814710063" sparseCutoff="1.0000000000000000" />
      <sparseX i="168" alpha="59.294764474726904" sparseCutoff="1.0000000000000000" />
      <sparseX i="169" alpha="-6.5128490008261952" sparseCutoff="1.0000000000000000" />
      <sparseX i="170" alpha="29.003361122198100" sparseCutoff="1.0000000000000000" />
      <sparseX i="171" alpha="22.282863913754419" sparseCutoff="1.0000000000000000" />
      <sparseX i="172" alpha="2.6696859954713288" sparseCutoff="1.0000000000000000" />
      <sparseX i="173" alpha="-57.562068029493304" sparseCutoff="1.0000000000000000" />
      <sparseX i="174" alpha="26.442642689882021" sparseCutoff="1.0000000000000000" />
      <sparseX i="175" alpha="-24.594186399946846" sparseCutoff="1.0000000000000000" />
      <sparseX i="176" alpha="17.778737899794958" sparseCutoff="1.0000000000000000" />
      <sparseX i="177" alpha="-20.176970928117790" sparseCutoff="1.0000000000000000" />
      <sparseX i="178" alpha="8.6934971470875322" sparseCutoff="1.0000000000000000" />
      <sparseX i="179" alpha="5.5140765033723937" sparseCutoff="1.0000000000000000" />
      <sparseX i="180" alpha="16.958203336352277" sparseCutoff="1.0000000000000000" />
      <sparseX i="181" alpha="-126.73439304244164" sparseCutoff="1.0000000000000000" />
      <sparseX i="182" alpha="-18.345073164667220" sparseCutoff="1.0000000000000000" />
      <sparseX i="183" alpha="27.161759201663596" sparseCutoff="1.0000000000000000" />
      <sparseX i="184" alpha="-31.467837532407451" sparseCutoff="1.0000000000000000" />
      <sparseX i="185" alpha="-24.079848559567505" sparseCutoff="1.0000000000000000" />
      <sparseX i="186" alpha="9.2624044450771663" sparseCutoff="1.0000000000000000" />
      <sparseX i="187" alpha="5.6235494478117962" sparseCutoff="1.0000000000000000" />
      <sparseX i="188" alpha="470.50783669047502" sparseCutoff="1.0000000000000000" />
      <sparseX i="189" alpha="-460.42872981274337" sparseCutoff="1.0000000000000000" />
      <sparseX i="190" alpha="-6.7748399287569923" sparseCutoff="1.0000000000000000" />
      <sparseX i="191" alpha="-2.7138158297764607" sparseCutoff="1.0000000000000000" />
      <sparseX i="192" alpha="-51.610575963815300" sparseCutoff="1.0000000000000000" />
      <sparseX i="193" alpha="15.852672703681154" sparseCutoff="1.0000000000000000" />
      <sparseX i="194" alpha="-33.916570240822054" sparseCutoff="1.0000000000000000" />
      <sparseX i="195" alpha="-30.653366759634295" sparseCutoff="1.0000000000000000" />
      <sparseX i="196" alpha="-2.9447644516036742" sparseCutoff="1.0000000000000000" />
      <sparseX i="197" alpha="4.8537661168363853" sparseCutoff="1.0000000000000000" />
      <sparseX i="198" alpha="-6.0528303138082524" sparseCutoff="1.0000000000000000" />
      <sparseX i="199" alpha="39.414192051833155" sparseCutoff="1.0000000000000000" />
      <sparseX i="200" alpha="-7.0379900348469739" sparseCutoff="1.0000000000000000" />
    </gpCoordinates>
  </gpSparse>
  <command_line> at_file=train.xyz gap={soap l_max=8 n_max=8 atom_sigma=0.5 zeta=4 cutoff=5.0 cutoff_transition_width=0.5 delta=1.0 f0=0.0 n_sparse=200 covariance_type=dot_product sparse_method=cur_points add_species=T} sparse_jitter=1e-08 e0=-0.97 e0_offset=0.0 default_sigma={0.0005 0.1 0.05 0.01} energy_parameter_name=dft_energy force_parameter_name=dft_force gp_file=train.xml</command_line>
  <XYZ_data>
    16
    dft_energy=-96.19874782 eV dft_virial=0.0	0.0	0.0	0.0	0.0	0.0	0.0	0.0	0.0 Lattice="7.089648514095674     0.0     0.0     -0.20171107115433812     6.210333484973554     0.0     -0.7434091278460627     -2.5818825345431544     5.824408751283443" Properties=species:S:1:pos:R:3:Z:I:1:dft_force:R:3
    Si                3.474092        3.031660        4.677268      14        0.038093       -0.018617       -0.027343
    Si                6.365906       -0.508304        3.817993      14       -0.077789        0.062320        0.169297
    Si                5.890427        2.717671        0.770610      14       -0.075987       -0.096304       -0.127048
    Si                5.814460        3.441667        4.381773      14        0.038573        0.034354        0.055289
    Si                5.832103        0.488339        1.728125      14        0.020936       -0.021446        0.091610
    Si                1.830045        4.259165        1.556160      14        0.076291        0.021425       -0.004299
    Si                1.505606       -0.538895        5.054282      14       -0.084916        0.008416        0.019921
    Si                1.649051        0.327616        0.904717      14        0.009063        0.006715        0.013180
    Si                1.509235        2.597827        3.222744      14        0.038051        0.039187       -0.026519
    Si                3.959571       -0.714296        4.718656      14       -0.138988       -0.053924       -0.074752
    Si                4.599906        4.727930        1.038172      14        0.073901       -0.004167       -0.053480
    O                 1.654531        1.189047        2.344144       8       -0.036774        0.019359       -0.000397
    O                 0.102157        2.510300        4.111351       8        0.062134        0.089164       -0.004360
    O                 2.160189        3.396117        0.183789       8       -0.044397        0.020923       -0.010527
    O                 3.385186        4.499618        2.161211       8        0.098903       -0.043458       -0.065997
    O                -0.016452        0.093962        0.367631       8        0.002907       -0.063947        0.045425
    16
    dft_energy=-107.90662786 eV dft_virial=0.0	0.0	0.0	0.0	0.0	0.0	0.0	0.0	0.0 Lattice="6.997058393178879     0.0     0.0     0.9381914364631453     5.532986309830002     0.0     0.06829328708358884     0.06350206762377714     6.461229151373509" Properties=species:S:1:pos:R:3:Z:I:1:dft_force:R:3
    Si                2.316337        1.629052        3.214875      14        0.017729        0.011500       -0.011659
    Si                2.546900        3.983261        3.358469      14       -0.018392        0.010084        0.002611
    Si                4.861234        4.130333        4.070600      14       -0.010693       -0.018667        0.014524
    Si                5.033409        1.116129        2.055860      14       -0.008777       -0.019281       -0.016856
    Si                5.710214        4.032961        1.816239      14       -0.019291       -0.021205       -0.016057
    Si                5.308246        1.151855        4.420831      14        0.008927       -0.021140       -0.008291
    Si                0.405171        0.456127        5.321643      14        0.019982        0.011998        0.007059
    Si                0.235884        0.274267        1.313626      14        0.007947        0.043534       -0.000237
    O                 1.978753        4.456103        1.888411       8       -0.011253        0.060644        0.025518
    O                 1.637319        1.395632        4.732650       8        0.033642        0.011445        0.004625
    O                 1.563821        4.488495        4.599859       8        0.015958        0.003740        0.047546
    O                 1.156502        1.491864        2.028374       8       -0.004428        0.064692        0.001980
    O                 4.901739        5.490819        1.432674       8       -0.002537       -0.036843       -0.023855
    O                 5.317047        5.406744        5.028290       8        0.019330       -0.041171       -0.002838
    O                 4.967721        2.711517        4.939513       8       -0.025127       -0.038448       -0.016183
    O                 4.860630        2.638395        1.359714       8       -0.023016       -0.020880       -0.007888
    16
    dft_energy=-95.55272911 eV dft_virial=0.0	0.0	0.0	0.0	0.0	0.0	0.0	0.0	0.0 Lattice="6.342673266129196     0.0     0.0     1.1820809232611793     6.908790491600972     0.0     0.7944125388334901     -3.6714917784895222     5.975852757994375" Properties=species:S:1:pos:R:3:Z:I:1:dft_force:R:3
    Si                6.660659        5.095235        0.471184      14        0.031890        0.005836       -0.095308
    Si                1.620973       -0.714566        1.381599      14        0.072377       -0.087239        0.064688
    Si                2.138089        3.970838        4.723792      14        0.005497        0.003126        0.007806
    Si                4.677614        0.819237        2.013271      14        0.009373        0.036843        0.065450
    Si                4.380943        0.176684        4.636090      14       -0.009781        0.012058       -0.055259
    Si                3.816594       -1.367929        2.611418      14       -0.029823        0.003615        0.069247
    Si                7.015211        0.629430        3.107784      14        0.015131       -0.066868       -0.078482
    Si                2.021494       -0.152380        4.939634      14        0.003656        0.036047       -0.021538
    Si                5.439558        2.636997        5.772751      14       -0.013974        0.007461        0.062508
    Si                5.998144       -1.530952        3.355268      14       -0.001014       -0.064719       -0.080415
    Si                4.550600        2.553407        3.519030      14        0.000118        0.086935        0.009555
    O                 1.808725       -1.736706        5.482164       8       -0.021917        0.042519       -0.003553
    O                 4.050651        0.933182        0.429957       8        0.017936        0.000875        0.058290
    O                 1.689657        4.866126        1.711305       8       -0.043431       -0.052040       -0.041084
    O                 2.989867        3.166043        3.581352       8       -0.017972        0.016256        0.057143
    O                 1.289737        6.504563        0.017228       8       -0.018064        0.019296       -0.019050
    16
    dft_energy=-95.23951645 eV dft_virial=0.0	0.0	0.0	0.0	0.0	0.0	0.0	0.0	0.0 Lattice="6.464279207095173     0.0     0.0     -0.742936798754722     5.8017321819049945     0.0     -0.7602280386371694     -0.8483883390519598     5.880135728553513" Properties=species:S:1:pos:R:3:Z:I:1:dft_force:R:3
    Si                1.251837        3.847925        3.447565      14        0.047873       -0.044793        0.035853
    Si                1.806036        0.993766        4.216869      14       -0.015557       -0.011448        0.022716
    Si                4.215019        2.919895        1.308771      14       -0.011858        0.029122       -0.054856
    Si                2.069466        3.246719        0.345576      14       -0.021216        0.010740        0.007239
    Si               -0.520288        2.006710        3.659685      14       -0.004884       -0.020034        0.001538
    Si                2.805972        5.121447        2.117037      14       -0.023775        0.027079        0.028035
    Si               -0.741594        3.871415        5.736131      14        0.014893        0.019254       -0.009391
    Si                4.265131        0.446942        4.471320      14        0.008096       -0.035323        0.002278
    Si                5.596621        0.612443        1.735563      14       -0.010412       -0.005676       -0.006366
    Si                2.101783        1.298258        1.775148      14       -0.025968        0.023647        0.037551
    Si                3.655638        3.215711        3.724213      14        0.046461       -0.018199       -0.046373
    O                 5.001357        1.497270        0.355031       8       -0.026172       -0.006471        0.014023
    O                 5.498725        3.884862        0.953582       8       -0.011726        0.024527       -0.044877
    O                 0.543737        5.070470        4.477353       8        0.030614       -0.031265        0.031875
    O                 4.352122        4.536097        4.752949       8        0.014615        0.016692       -0.017105
    O                 0.740099        0.284461        1.038891       8       -0.010984        0.022147       -0.002140
    16
    dft_energy=-96.85716447 eV dft_virial=0.0	0.0	0.0	0.0	0.0	0.0	0.0	0.0	0.0 Lattice="5.086654894838256     0.0     0.0     2.523403492445922     5.596952859398739     0.0     -0.01897885773909372     -0.044043442986764464     10.031015411555789" Properties=species:S:1:pos:R:3:Z:I:1:dft_force:R:3
    Si                2.525092        5.552754        1.659682      14       -0.025247        0.028629       -0.003417
    Si                2.516906        5.557085        8.385387      14       -0.027954        0.015579        0.001773
    Si                4.133350        1.821366        7.278645      14        0.019680        0.035868        0.001137
    Si                6.665677        3.681109        7.276318      14       -0.009752        0.028561       -0.037526
    Si                2.103321        0.016225        7.244349      14       -0.006333       -0.009524        0.000407
    Si                4.134007        1.809212        2.770597      14        0.023481        0.047001       -0.001711
    Si                6.667508        3.670591        2.757837      14       -0.009707        0.039377        0.039461
    Si                2.107288        0.000590        2.810239      14       -0.013554        0.007291        0.001088
    Si                4.193095        1.125578        5.025639      14       -0.025950       -0.037523        0.001090
    Si                6.862827        4.354967        5.017113      14       -0.048023        0.018754        0.002972
    Si                1.285527        0.064737        5.025659      14        0.004784        0.031847        0.000397
    O                 2.538625        2.298288        2.381082       8        0.048506        0.013889        0.028084
    O                 5.086978        3.181943        7.647847       8        0.030981       -0.088411       -0.052640
    O                 2.536357        2.310361        7.662231       8        0.046659        0.005433       -0.029218
    O                 5.088531        3.167745        2.395457       8        0.032900       -0.075211        0.045587
    O                 5.066741        0.023061        0.007303       8       -0.040471       -0.061561        0.002516
    16
    dft_energy=-89.54558676 eV dft_virial=0.0	0.0	0.0	0.0	0.0	0.0	0.0	0.0	0.0 Lattice="6.803613390630158     0.0     0.0     3.22067310306097     5.879696556675577     0.0     -0.06267585587597656     -0.004302970798074885     5.635107948467228" Properties=species:S:1:pos:R:3:Z:I:1:dft_force:R:3
    Si                7.844720        4.834420        3.751765      14        0.155186       -0.112119        0.243908
    Si                5.123686        4.519393        3.789610      14        0.092271        0.213947        0.043195
    Si                6.939922        2.442969        3.716264      14       -0.142708       -0.062956        0.224527
    Si                3.428559        3.477219        1.814843      14       -0.182050       -0.017285       -0.077520
    Si                1.879939        1.292526        1.788628      14        0.059286       -0.199420       -0.196501
    Si                4.454866        0.997083        1.973049      14        0.133763        0.067275       -0.187463
    Si                8.236362        3.255519        0.106002      14       -0.114545        0.097996        0.128921
    Si                3.209294        0.401442        5.467435      14       -0.030314        0.157532       -0.106582
    Si                5.270368        2.788061        0.049854      14       -0.054596       -0.156820       -0.048991
    Si                6.748189        0.015769        5.597770      14       -0.056166        0.056911       -0.039690
    Si                6.740676        0.084102        2.827596      14       -0.133476        0.134847       -0.024864
    O                 2.077831        3.838937        2.817267       8       -0.090878       -0.113843        0.055354
    O                 5.578507        5.826093        2.754880       8        0.137955        0.017011       -0.097456
    O                 5.605105        1.939560        2.793165       8        0.034790       -0.035556        0.018154
    O                 6.698362        3.608193        0.762154       8       -0.100203       -0.108313        0.139609
    O                 3.495483        1.905337        4.830572       8        0.291684        0.060794       -0.074599
    16
    dft_energy=-96.66056987 eV dft_virial=0.0	0.0	0.0	0.0	0.0	0.0	0.0	0.0	0.0 Lattice="6.763926130851149     0.0     0.0     -1.5811384698212574     6.154365252981764     0.0     -1.053206848369819     2.3560825829271335     7.073756563975348" Properties=species:S:1:pos:R:3:Z:I:1:dft_force:R:3
    Si               -0.393090        4.347926        6.744565      14       -0.009119       -0.016176       -0.028695
    Si                3.626033        2.482836        6.493171      14        0.011755       -0.001908        0.051226
    Si               -1.063380        4.740452        1.801212      14       -0.033210        0.002673       -0.039711
    Si               -2.173460        7.530653        4.944924      14        0.041621        0.001291       -0.011170
    Si                2.544318        5.642299        6.670673      14       -0.008666       -0.010238        0.016666
    Si               -1.167791        8.279106        6.990979      14       -0.005949       -0.002322       -0.018935
    Si               -1.326275        4.320521        4.593103      14        0.020053        0.019643       -0.019760
    Si                4.343172        6.668731        2.507420      14       -0.011601        0.005036       -0.004077
    Si                5.389532        2.315698        0.917502      14       -0.017687       -0.016875       -0.012471
    Si                3.370216        5.543596        4.441329      14        0.024608        0.020832        0.032958
    Si                4.103314        2.399805        4.198812      14        0.036962        0.008931        0.062800
    O                 0.963471        5.307440        6.980928       8       -0.022956       -0.002352       -0.008846
    O                 2.045830        2.397318        6.913670       8        0.000839        0.015700        0.045016
    O                -0.278066        4.629987        3.301824       8       -0.014969       -0.005257       -0.065154
    O                 0.284240        1.370066        3.484723       8        0.019228       -0.000283       -0.036286
    O                 3.765629        4.885202        0.110096       8       -0.030909       -0.018695        0.036439
    16
    dft_energy=-96.29108621 eV dft_virial=0.0	0.0	0.0	0.0	0.0	0.0	0.0	0.0	0.0 Lattice="9.475838264089885     0.0     0.0     -1.0735412935154234     6.997075708132807     0.0     -0.22632282642267953     -1.2647000055353566     4.4865783905092895" Properties=species:S:1:pos:R:3:Z:I:1:dft_force:R:3
    Si                2.912149        1.409104        3.320925      14       -0.071785        0.003464        0.067128
    Si                5.223025        4.367210        3.315137      14        0.005808        0.051091       -0.001217
    Si                7.801611        1.732602        1.995177      14        0.024563        0.017646       -0.070599
    Si                0.353079        4.098628        2.653470      14       -0.036389        0.020930       -0.006027
    Si                5.992575        0.204848        1.819801      14       -0.028380        0.141210       -0.088493
    Si                2.330458        5.376650        2.507244      14        0.032225       -0.107640        0.060312
    Si                0.624975        1.875124        3.522852      14       -0.058008       -0.052310       -0.025440
    Si                7.382323        3.475192        3.728988      14        0.030137        0.084174       -0.035430
    Si                4.019997        2.915592        1.899133      14        0.178922       -0.211791        0.084934
    Si                3.535151        6.071902        0.232957      14        0.054536       -0.070285        0.016938
    Si                8.759829        3.404604        0.728208      14       -0.004497        0.036848       -0.022597
    O                 5.528147        5.913137        2.712895       8       -0.128538        0.117461       -0.009133
    O                 2.754008       -0.081354        2.658728       8        0.130176       -0.035522       -0.007700
    O                -0.966583        4.721992        3.517980       8        0.025922        0.126735        0.008245
    O                -0.281400        0.900924        2.467169       8        0.004535       -0.071854       -0.079528
    O                 4.060738        2.724270        0.235366       8       -0.159226       -0.050158        0.108606
    16
    dft_energy=-97.79017209 eV dft_virial=0.0	0.0	0.0	0.0	0.0	0.0	0.0	0.0	0.0 Lattice="7.356765973212618     0.0     0.0     -0.1550192543543671     5.775123200188756     0.0     3.2664347169796124     2.4115209950291985     6.625482659398461" Properties=species:S:1:pos:R:3:Z:I:1:dft_force:R:3
    Si                5.949435        3.785896        6.523013      14       -0.002726        0.033725        0.002548
    Si                4.136855        5.548869        0.584904      14       -0.004685        0.026109       -0.002742
    Si                6.370288        3.541808        0.267179      14        0.001218        0.024638        0.001810
    Si                0.291601        1.560678        0.389062      14       -0.005262        0.023758        0.025488
    Si                6.881441        6.609298        2.570250      14       -0.012179        0.006426        0.024621
    Si                6.573338        4.302717        2.543602      14        0.006254        0.011098       -0.003129
    Si                8.940320        2.655648        3.834604      14        0.011906       -0.016449       -0.006684
    Si                5.166550        2.601664        4.558942      14       -0.003580        0.017948        0.014612
    Si                3.001902        2.163521        5.626214      14       -0.004737        0.034893        0.016133
    Si                3.528079        4.783504        2.785432      14       -0.014652       -0.062721       -0.045308
    Si                7.300660        5.793469        6.492522      14       -0.000662        0.033838       -0.010691
    O                 5.819614        1.453360        3.547608       8       -0.016600        0.005393        0.037361
    O                 2.580103        3.403908        2.765775       8        0.034594       -0.127531       -0.064831
    O                 5.058740        3.937885        3.361724       8       -0.000745       -0.005787       -0.008822
    O                 8.323620        6.927808        3.352083       8       -0.023353       -0.019995        0.052151
    O                 7.580276        3.616756        3.706719       8        0.035209        0.014658       -0.032517
    16
    dft_energy=-96.80662894 eV dft_virial=0.0	0.0	0.0	0.0	0.0	0.0	0.0	0.0	0.0 Lattice="6.690459250234844     0.0     0.0     -1.081929056805916     6.3845547478467966     0.0     -1.2015595502526706     -0.5743385984098077     6.560576605085049" Properties=species:S:1:pos:R:3:Z:I:1:dft_force:R:3
    Si                0.415877        2.568563        0.237834      14       -0.000982       -0.008443       -0.042158
    Si               -0.166407        4.345837        5.417390      14        0.021696       -0.027458       -0.037854
    Si                3.719140        0.974953        4.309203      14        0.001742       -0.001277       -0.018062
    Si                3.452054        5.325119        1.418062      14       -0.022819       -0.010658        0.000675
    Si                2.117898        3.352494        4.263148      14        0.008316        0.032271        0.010692
    Si                4.666552        1.851724        0.076300      14        0.006897       -0.009279       -0.037417
    Si               -0.435675        4.909116        2.889114      14       -0.014974       -0.016462        0.010701
    Si               -0.660556        0.945423        4.528589      14       -0.000281       -0.004169        0.012841
    Si                0.208262        2.656008        3.036996      14        0.006203       -0.010134        0.042604
    Si                2.939935        3.483219        0.051153      14       -0.004021        0.015051       -0.017950
    Si                1.893883        5.445739        3.205248      14       -0.033441        0.025445       -0.020413
    O                 5.065315        5.416674        1.877224       8       -0.052361       -0.047696        0.063369
    O                 3.414764        2.476396        3.601422       8        0.025593        0.035739        0.041623
    O                 4.241292        0.383082        0.693322       8        0.018422        0.001698        0.000256
    O                -1.087558        5.674916        4.417302       8        0.031044        0.013839        0.013467
    O                -1.399489        3.493212        6.143547       8        0.008968        0.011532       -0.022374
    16
    dft_energy=-96.86699482 eV dft_virial=0.0	0.0	0.0	0.0	0.0	0.0	0.0	0.0	0.0 Lattice="8.321199269532546     0.0     0.0     1.7676775491906118     5.37975823139028     0.0     -0.4724984220779118     0.4154633357253127     5.862544039878496" Properties=species:S:1:pos:R:3:Z:I:1:dft_force:R:3
    Si                1.086003        1.478560        0.667779      14        0.008607        0.033388       -0.033694
    Si                6.607814        0.266436        0.526503      14        0.006462       -0.012354        0.032743
    Si                3.522910        3.081221        2.969449      14       -0.000165       -0.017415        0.010910
    Si                7.638970        2.786978        3.495946      14       -0.026989        0.003901       -0.038904
    Si                4.240447        4.762034        4.578260      14       -0.039547       -0.013254        0.004865
    Si                6.635635        4.664552        4.766665      14       -0.000177       -0.008043        0.002102
    Si                1.622619        1.603190        3.651796      14       -0.015801        0.013184       -0.037948
    Si                7.486500        2.912813        1.016120      14        0.012617       -0.018026       -0.036393
    Si                3.275696        3.578582        0.548693      14       -0.028603       -0.008628        0.001117
    Si                5.985413        1.019463        3.418274      14        0.053546       -0.034816        0.030443
    Si                1.525353        5.552138        5.232397      14       -0.016663        0.056214        0.034284
    O                 2.551106        2.075642        0.093859       8        0.014285        0.006328       -0.029116
    O                 8.255660        5.396480        2.159978       8       -0.011355       -0.022052        0.030704
    O                 1.383433        0.833977        2.163994       8       -0.011450        0.021948       -0.024553
    O                 6.227147        1.894636        0.420075       8        0.005745       -0.020784        0.005359
    O                 4.636567        1.830359        2.905166       8        0.049489        0.020409        0.048081
    16
    dft_energy=-98.27618054 eV dft_virial=0.0	0.0	0.0	0.0	0.0	0.0	0.0	0.0	0.0 Lattice="6.807097709215654     0.0     0.0     2.1451936589704945     6.532878554812249     0.0     -1.5925530269294625     2.384542055772694     5.9728426884759935" Properties=species:S:1:pos:R:3:Z:I:1:dft_force:R:3
    Si                6.574847        3.560634        0.729099      14       -0.046254       -0.002708        0.021704
    Si                7.450271        6.500662        3.088211      14        0.008873       -0.015199        0.018171
    Si                5.932489        5.644012        1.564162      14        0.028382        0.030689       -0.011108
    Si                2.359664        4.806590        3.021727      14        0.033249        0.024731        0.016748
    Si                0.157194        5.593678        5.225407      14       -0.052274       -0.034519        0.004009
    Si               -0.214081        2.045494        2.668254      14       -0.021482       -0.003131        0.014279
    Si                2.385604        2.533051        5.492644      14        0.015265        0.000174       -0.022531
    Si                3.622652        6.159873        1.623216      14        0.029386        0.028257        0.020367
    Si                0.183739        3.166241        4.820138      14       -0.005080       -0.018455        0.004641
    Si                3.125308        5.323190        5.285494      14       -0.022017        0.003148        0.015602
    Si                3.031131        2.168571        2.678605      14        0.022324        0.038673       -0.020382
    O                 3.424136        3.767956        5.804409       8        0.026956       -0.004601       -0.050801
    O                 3.259635        3.468197        0.008434       8       -0.058865       -0.058567        0.024739
    O                 1.393620        1.264201        2.342435       8        0.010748        0.043145       -0.024013
    O                 5.217901        8.180795        4.275624       8        0.009778       -0.004789       -0.032830
    O                 3.075923        6.477037        0.082819       8        0.021012       -0.026848        0.021407
    16
    dft_energy=-98.67089389 eV dft_virial=0.0	0.0	0.0	0.0	0.0	0.0	0.0	0.0	0.0 Lattice="6.648802180256606     0.0     0.0     -0.6257863256066102     6.21493612053461     0.0     0.15851986018214226     2.259819856899983     6.50981310098511" Properties=species:S:1:pos:R:3:Z:I:1:dft_force:R:3
    Si                1.037403        6.824860        5.455230      14       -0.017466        0.002407        0.022002
    Si                5.309903        2.985165        4.256728      14       -0.013723       -0.001359       -0.017632
    Si                4.392182        5.594727        1.506247      14        0.018486       -0.010217       -0.042542
    Si                2.068158        3.983442        5.436254      14        0.018214        0.009237        0.035049
    Si                5.448031        1.731398        1.185027      14        0.025326       -0.004460       -0.036002
    Si                1.261001        5.039380        1.206067      14        0.009644        0.004400        0.004330
    Si                4.396051        4.522574        5.717868      14        0.019716        0.005124       -0.018821
    Si                6.025519        3.915642        2.224716      14        0.007171       -0.019051       -0.011377
    Si                2.374790        2.151887        3.864759      14       -0.031484       -0.001459        0.038562
    Si                5.380393        7.481459        5.739722      14       -0.017281       -0.007942       -0.033966
    Si                1.094778        1.080671        1.041394      14        0.029548        0.013513        0.026556
    O                 1.700296        1.945889        2.370347       8       -0.036117        0.017558        0.043111
    O                 4.538744        6.113010        5.244676       8       -0.016844       -0.000761       -0.041395
    O                 3.992641        2.176925        3.546130       8       -0.031420        0.001846        0.040079
    O                 2.826451        5.035931        1.821921       8        0.021153       -0.011114       -0.045222
    O                 1.142505        5.261949        4.867277       8        0.015076        0.002277        0.037269
    16
    dft_energy=-98.21006802 eV dft_virial=0.0	0.0	0.0	0.0	0.0	0.0	0.0	0.0	0.0 Lattice="5.802817434230807     0.0     0.0     0.0637435968743399     6.187708508805786     0.0     -0.6825667591432721     0.6182568240259567     7.261048083073682" Properties=species:S:1:pos:R:3:Z:I:1:dft_force:R:3
    Si                3.343284        1.042332        1.731535      14        0.005907       -0.000405       -0.026448
    Si                1.959894        5.279548        1.922406      14        0.030000        0.027085       -0.006862
    Si                4.753514        3.988581        1.672045      14        0.020625        0.044804       -0.046647
    Si                0.846790        2.450300        1.598672      14       -0.037089       -0.026830        0.010476
    Si                1.838481        2.248667        6.851532      14        0.038219       -0.006290        0.023173
    Si                3.531758        4.906211        6.634434      14        0.248696       -0.005555       -0.014243
    Si                3.432381        3.046178        5.253012      14       -0.046973        0.011597       -0.022965
    Si                1.099119        4.699771        7.122936      14        0.013306       -0.041450        0.032123
    Si                2.835042        3.197836        2.920829      14       -0.072058        0.053286        0.003020
    Si                5.256903        0.615522        5.522840      14       -0.028213        0.059635       -0.015606
    Si                5.581321        6.274396        2.318612      14       -0.010490       -0.021764        0.032852
    O                 3.751876        6.487217        6.135433       8       -0.035783        0.059450       -0.023580
    O                 0.869182        1.013406        6.346512       8       -0.057859        0.013795        0.040270
    O                -0.157631        5.066916        6.091772       8       -0.143165       -0.035158        0.151009
    O                 4.867807        2.268799        5.296492       8        0.001828        0.026267       -0.185887
    O                -0.259519        6.403740        3.945443       8        0.073049       -0.158466        0.049316
    16
    dft_energy=-107.38584954 eV dft_virial=0.0	0.0	0.0	0.0	0.0	0.0	0.0	0.0	0.0 Lattice="5.2453639043968145     0.0     0.0     -2.138822571414729     6.261169497975508     0.0     -1.5832174832119632     -1.2414905278164974     6.638803207531225" Properties=species:S:1:pos:R:3:Z:I:1:dft_force:R:3
    Si               -1.900128        5.146769        4.861144      14       -0.006167        0.021583       -0.005624
    Si                3.356595        2.771748        0.081710      14        0.001025       -0.018232        0.026424
    Si                4.403088        0.316878        1.242757      14        0.015009       -0.021318       -0.020812
    Si               -0.254969        5.304625        0.382594      14       -0.025437       -0.008794       -0.005276
    Si                0.773895        3.291067        1.077617      14        0.013117       -0.001571        0.009522
    Si                0.795095        3.506064        3.564367      14       -0.000803        0.025752        0.005249
    Si                1.981623        0.323173        3.188206      14       -0.005042        0.014006       -0.027400
    Si                0.434136        1.372700        4.818716      14        0.028894        0.020230        0.006757
    O                -0.352488        4.912011        3.977685       8       -0.024158        0.004450       -0.016307
    O                 2.233406        2.518165        1.287231       8        0.000973       -0.037384        0.029728
    O                -0.780379        1.950554        5.914769       8        0.056207        0.044905        0.027447
    O                 1.049996       -0.000625        1.692503       8       -0.026411       -0.009072       -0.017465
    O                -0.565590        2.105976        1.030721       8        0.020882       -0.006779        0.002283
    O                 2.251173        4.200089        4.040203       8       -0.018151        0.039615        0.007446
    O                 3.595581        4.392175        0.104183       8       -0.015989       -0.021902        0.020509
    O                 3.593986        0.334480        2.733434       8       -0.013951       -0.045487       -0.042481
    16
    dft_energy=-97.30489216 eV dft_virial=0.0	0.0	0.0	0.0	0.0	0.0	0.0	0.0	0.0 Lattice="6.207052982087071     0.0     0.0     2.7272442114273767     9.14795731008212     0.0     0.9344951764728844     0.28257736072746453     4.859470860812133" Properties=species:S:1:pos:R:3:Z:I:1:dft_force:R:3
    Si                1.902442        2.403876        0.481297      14       -0.035903        0.026406       -0.023345
    Si                7.615338        6.564031        4.788994      14        0.013186       -0.022633        0.045000
    Si                3.740799        6.140196        2.889835      14        0.013419       -0.002985        0.005687
    Si                2.868779        8.070751        1.860779      14        0.005839        0.004118       -0.019451
    Si                0.913096        0.610488        3.297200      14       -0.030876        0.043828       -0.045831
    Si                6.121276        6.511489        2.691539      14        0.019652       -0.037984        0.045555
    Si                2.635994        3.235009        2.548661      14       -0.012573        0.023687       -0.035141
    Si                6.764950        8.380841        1.170671      14        0.005226       -0.019328        0.039316
    Si                3.302018        0.891297        2.759387      14       -0.016945        0.004741        0.006941
    Si                5.065141        1.245719        4.264166      14       -0.014925       -0.038354       -0.004001
    Si                1.438332        0.038579        0.248275      14       -0.050087        0.027148       -0.033087
    O                 3.585011        2.433661        0.014982       8       -0.050505       -0.033488       -0.005010
    O                 2.980847        6.184829        4.374603       8        0.009765        0.023654       -0.001081
    O                 6.371447        5.434544        1.362032       8        0.089220       -0.046346        0.050522
    O                 2.002495        3.455988        4.091028       8        0.000054        0.059131       -0.036189
    O                 3.464806        4.636637        2.243890       8        0.055451       -0.011594        0.010116
    16
    dft_energy=-96.51494076 eV dft_virial=0.0	0.0	0.0	0.0	0.0	0.0	0.0	0.0	0.0 Lattice="5.544846764541469     0.0     0.0     1.3288145953099755     3.847418966732917     0.0     -0.47076854290523606     -0.31461788602830404     13.346220099189132" Properties=species:S:1:pos:R:3:Z:I:1:dft_force:R:3
    Si                4.445730        3.381523        5.624364      14       -0.012080       -0.020547       -0.012493
    Si                2.540504        1.918927        5.607534      14       -0.023642       -0.026873       -0.007116
    Si                0.000846        0.611125        8.270586      14       -0.001316        0.073692        0.006049
    Si                3.925301        1.588902        0.369904      14       -0.026733       -0.014964       -0.018602
    Si                4.440123        3.062704       12.310166      14        0.068329       -0.011771       -0.007496
    Si                6.059177        2.281143        1.094790      14       -0.004349       -0.028479        0.006428
    Si                6.230129        2.542614        6.992165      14        0.008276        0.063028       -0.005658
    Si                2.445431        1.894216        2.388533      14        0.003515        0.009328        0.002561
    Si                4.438115        3.457663        2.445415      14        0.007449       -0.005734       -0.004516
    Si                3.740636        1.386653       10.769786      14       -0.015946        0.014471        0.009553
    Si                1.541050        0.525556       10.926564      14       -0.005347       -0.073767        0.005241
    O                 1.224679        0.175156        9.305278       8       -0.018511        0.041283       -0.003464
    O                 4.269316        1.118335        9.212896       8       -0.008270        0.053880        0.017093
    O                 4.915816        3.186236        4.023779       8        0.015875        0.023524        0.002038
    O                 2.071612        2.126965        4.011193       8       -0.033417       -0.041780       -0.001051
    O                 6.003288        2.705730       12.969176       8        0.046166       -0.055291        0.011433
    16
    dft_energy=-98.55758547 eV dft_virial=0.0	0.0	0.0	0.0	0.0	0.0	0.0	0.0	0.0 Lattice="5.646187610200178     0.0     0.0     -0.3439540708140139     4.894948632153301     0.0     0.7228662630057909     1.6901982009379026     9.606867518202971" Properties=species:S:1:pos:R:3:Z:I:1:dft_force:R:3
    Si                1.385982        4.782161        0.516388      14        0.000454        0.016828       -0.002615
    Si                0.944322        3.201088        9.041215      14       -0.010890       -0.006176        0.014369
    Si                4.624944        1.811881        9.098299      14        0.015308       -0.012500       -0.001266
    Si                5.069456        3.388904        0.560695      14        0.021020        0.016049       -0.006858
    Si                0.684554        4.355512        4.309785      14       -0.017604       -0.006112        0.011160
    Si                3.712087        1.791769        6.940357      14        0.011070        0.032259        0.012747
    Si                5.345332        2.242988        5.300810      14        0.008646        0.006206       -0.009172
    Si                2.314900        4.804342        2.669066      14       -0.013410       -0.033583       -0.011785
    Si                3.621810        2.830203        2.296771      14       -0.058722       -0.045804       -0.079017
    Si                2.404742        3.765603        7.314986      14        0.052387        0.042832        0.073676
    Si                2.641705        2.453611        0.005889      14        0.005572       -0.001831       -0.002826
    O                 5.051990        3.250083        3.939094       8        0.007663        0.002240       -0.001869
    O                 2.638495        5.221488        6.474030       8       -0.032359        0.048070        0.055009
    O                 0.976786        3.349043        5.671578       8       -0.013128       -0.006335        0.002694
    O                 3.390890        1.373381        3.135989       8        0.027712       -0.049090       -0.055230
    O                 0.365630        0.852922        4.804577       8       -0.003721       -0.003052        0.000981
    16
    dft_energy=-97.12375112 eV dft_virial=0.0	0.0	0.0	0.0	0.0	0.0	0.0	0.0	0.0 Lattice="5.470075082241011     0.0     0.0     2.641368673562642     4.907719716833361     0.0     -1.135750193536607     -0.7573195215139252     9.076582249327359" Properties=species:S:1:pos:R:3:Z:I:1:dft_force:R:3
    Si                2.997690        3.530589        5.741919      14        0.042197       -0.042594       -0.024452
    Si                3.986049        0.595454        5.602693      14       -0.000340        0.011235       -0.021837
    Si                6.130082        3.116957        5.615282      14        0.048902        0.017588        0.015363
    Si                1.623717        0.240371        3.436412      14        0.000132       -0.000362        0.004703
    Si                4.339640        1.283670        3.333230      14       -0.006446        0.010294       -0.012500
    Si                2.096325        3.232960        3.426963      14       -0.016498       -0.013071        0.006999
    Si               -0.031421       -0.048065        1.818575      14       -0.027031       -0.027718        0.017835
    Si                5.364903        3.258445        2.626019      14       -0.008288        0.003474       -0.019595
    Si                1.438009        0.906772        5.854532      14       -0.066117       -0.029811        0.003572
    Si                5.373353        3.277000        0.208834      14       -0.002185        0.000959       -0.015157
    Si                1.509832        0.838626        8.281229      14       -0.000477       -0.000134       -0.000789
    O                 4.546745        3.026268        6.212821       8        0.052931        0.058833        0.042776
    O                 2.619973        1.615932        2.889203       8       -0.010065        0.003894       -0.001349
    O                 4.209136        4.148396        8.806917       8       -0.010350        0.007839        0.018737
    O                 2.876921        1.687957        8.745659       8        0.003059       -0.000958       -0.015947
    O                 5.611492        1.674089        8.782465       8        0.000576        0.000534        0.001641
    16
    dft_energy=-97.22488339 eV dft_virial=0.0	0.0	0.0	0.0	0.0	0.0	0.0	0.0	0.0 Lattice="9.452403885772865     0.0     0.0     -1.4801997370950262     5.2176526587953145     0.0     1.221015429823788     3.019560698986959     5.107976655463845" Properties=species:S:1:pos:R:3:Z:I:1:dft_force:R:3
    Si                2.309165        5.117019        0.770211      14       -0.036758       -0.003460       -0.013001
    Si                5.964805        3.877999        2.209036      14        0.024028        0.013225       -0.011603
    Si                6.767826        3.094320        4.309513      14       -0.038126        0.018130        0.024743
    Si                3.537773        4.261151        2.570799      14        0.026533       -0.023314       -0.040816
    Si                7.113693        1.599340        0.150558      14       -0.010637        0.004777        0.013862
    Si                2.436812        2.106253        2.760800      14        0.035015       -0.023059        0.010286
    Si                0.200346        4.234983        0.147544      14       -0.016068        0.008232       -0.009074
    Si                7.332390        5.807646        1.506465      14        0.023492        0.020208        0.013461
    Si                0.196283        2.897112        2.167386      14        0.043195        0.010924       -0.016665
    Si                9.140973        5.160546        3.112193      14        0.004620       -0.030857        0.021051
    Si                4.268077        5.971198        5.106618      14       -0.048827       -0.017975       -0.017194
    O                 3.357183        1.713954        1.217834       8       -0.022857       -0.018969       -0.008630
    O                 6.283934        2.705171        1.070760       8        0.032074        0.019620        0.016821
    O                 5.600055        6.610588        4.270585       8       -0.032119        0.028901        0.061831
    O                 3.415462        5.121100        3.989917       8        0.025280       -0.019058       -0.058340
    O                -1.158333        5.235509        0.225798       8       -0.008846        0.012673        0.013268
    16
    dft_energy=-97.83399809 eV dft_virial=0.0	0.0	0.0	0.0	0.0	0.0	0.0	0.0	0.0 Lattice="5.658867355357255     0.0     0.0     1.9335749882660431     5.296893029831447     0.0     0.2026322098263087     1.027574319691703     8.951596533039906" Properties=species:S:1:pos:R:3:Z:I:1:dft_force:R:3
    Si                5.658280        3.442439        4.906585      14        0.030959        0.010838       -0.012243
    Si                2.505317        1.496940        3.712648      14       -0.027622       -0.003294        0.000922
    Si                1.636193        3.853138        6.596396      14        0.063482        0.039200       -0.030225
    Si                5.211121        4.670839        2.993468      14       -0.035884       -0.010370       -0.003504
    Si                0.341762        1.052381        2.698960      14       -0.032267       -0.020436        0.015477
    Si                6.225526        6.138438        7.352251      14        0.037822        0.009025       -0.000585
    Si                1.746394        1.555445        5.983319      14        0.022764        0.016939       -0.007816
    Si                7.088381        4.574394        1.436507      14       -0.045990       -0.020707        0.015079
    Si                3.987631        3.839301        6.506772      14        0.065089        0.014746       -0.006585
    Si                3.729318        3.000623        2.370723      14       -0.044221       -0.016307        0.010257
    Si                5.308918        1.019350        5.053937      14        0.008773        0.009312        0.000042
    O                 2.543916        3.344982        1.235714       8       -0.069010       -0.035604        0.015933
    O                 4.529580        5.582828        7.065907       8        0.044111        0.016685       -0.023963
    O                 4.173092        2.536984        7.552453       8        0.099896        0.018576       -0.010488
    O                 5.016071        2.090249        1.782693       8       -0.060692       -0.031473        0.017059
    O                 6.611787        5.823220        8.923381       8       -0.057210        0.002870        0.020641
    16
    dft_energy=-96.53936387 eV dft_virial=0.0	0.0	0.0	0.0	0.0	0.0	0.0	0.0	0.0 Lattice="6.299737360308364     0.0     0.0     -0.8786069532754408     6.663262225608793     0.0     -0.40096709715567513     2.1890763108836917     6.515985306675836" Properties=species:S:1:pos:R:3:Z:I:1:dft_force:R:3
    Si                1.601639        2.038975        0.601093      14        0.026287        0.015769       -0.005165
    Si                0.526700        7.858867        4.453650      14       -0.066574       -0.023226        0.093536
    Si                3.754475        3.994276        5.125878      14        0.001757       -0.023537       -0.029628
    Si                3.579845        5.953680        0.655573      14        0.003130       -0.007874       -0.008700
    Si                2.701539        7.112867        4.503171      14       -0.045315        0.017116       -0.019396
    Si                4.866755        2.508790        1.885101      14        0.040298       -0.005945       -0.030958
    Si               -0.091714        5.989642        2.413365      14       -0.021151        0.039309        0.025318
    Si                0.975921        3.421193        4.898060      14        0.002887        0.006740        0.003797
    Si                5.487556        4.039488        3.577022      14        0.008011       -0.013260       -0.023284
    Si                3.405815        3.544849        0.309705      14        0.048741       -0.004812       -0.048799
    Si                2.153761        7.316261        2.037842      14       -0.015445       -0.041848       -0.015492
    O                 5.188917        6.127112        1.082813       8       -0.012082        0.046827        0.022245
    O                 3.935220        2.195406        5.568027       8       -0.000058       -0.016208       -0.008732
    O                -0.654739        7.140595        3.548299       8       -0.016076        0.000953        0.028647
    O                 0.076303        2.399248        1.128862       8        0.051504        0.036648        0.019882
    O                 2.400108        3.971040        4.147197       8       -0.005916       -0.026652       -0.003271
    16
    dft_energy=-96.08423784 eV dft_virial=0.0	0.0	0.0	0.0	0.0	0.0	0.0	0.0	0.0 Lattice="8.527216714258234     0.0     0.0     -3.2834198373128283     7.1402586678827396     0.0     -0.2786186278627574     -0.19784911505290836     4.064639486169796" Properties=species:S:1:pos:R:3:Z:I:1:dft_force:R:3
    Si                4.920655        4.733278        0.836426      14        0.008286       -0.007704       -0.001144
    Si                2.252028        1.216902        0.697468      14       -0.001190        0.002092        0.009661
    Si                6.323123        0.988109        1.044198      14       -0.091855       -0.011207        0.043556
    Si                2.379649        6.879079        2.911294      14        0.014751       -0.015391        0.062479
    Si               -1.420156        4.698714        1.882867      14        0.033313        0.008519       -0.025775
    Si                1.047505        3.070520        1.746600      14        0.016489       -0.012399       -0.026640
    Si                3.521178        4.827966        2.775055      14        0.019179       -0.005565       -0.003400
    Si               -0.775717        6.941997        2.643910      14       -0.014353       -0.014326        0.001678
    Si               -0.792700        1.983997        2.730836      14       -0.018535       -0.004758       -0.048139
    Si               -0.064273        0.285751        0.145701      14       -0.004429        0.083020        0.022036
    Si                4.538478        2.396011        0.267758      14       -0.049635       -0.006331        0.017482
    O                 0.785947        6.460073        2.952237       8       -0.012919       -0.028071        0.028335
    O                -1.648279        3.439768        2.974186       8        0.043006        0.001529       -0.045669
    O                 2.153243        3.854860        2.668184       8        0.019833       -0.006514       -0.038608
    O                 0.030593        4.261085        1.120861       8        0.030069        0.002690       -0.033387
    O                 4.284230        2.129275        2.709379       8        0.007988        0.014416        0.037533
    16
    dft_energy=-107.62194258 eV dft_virial=0.0	0.0	0.0	0.0	0.0	0.0	0.0	0.0	0.0 Lattice="7.999298306027286     0.0     0.0     1.5488104436952772     6.8401131286654495     0.0     0.08573289954035884     -0.6321875029308284     3.56987525501389" Properties=species:S:1:pos:R:3:Z:I:1:dft_force:R:3
    Si                1.552178        3.956395        1.403800      14        0.008348        0.021853       -0.011236
    Si                8.055890        2.214922        2.157501      14       -0.010391       -0.024083        0.011905
    Si                5.061882        5.760498        0.383583      14       -0.044642        0.028075        0.006430
    Si                4.545160        0.409414        3.178160      14        0.043805       -0.029499       -0.004761
    Si                2.929226        3.186727        3.038178      14       -0.019769        0.038323        0.013250
    Si                6.677781        2.983231        0.523347      14        0.019078       -0.038768       -0.012829
    Si                1.701287        0.552266        2.097569      14        0.055514        0.006806        0.128049
    Si                7.903016        5.614747        1.468493      14       -0.053685       -0.004155       -0.131980
    O                 4.412192        3.903621        3.142029       8       -0.035505        0.036222        0.036784
    O                 5.194843        2.266226        0.419696       8        0.034534       -0.037251       -0.035866
    O                 8.095292        5.419070        3.311234       8       -0.032027        0.023656        0.011717
    O                 1.505014        0.746002        0.249991       8        0.036018       -0.020245       -0.010195
    O                 4.168284        6.009688        1.745751       8        0.032840        0.028711        0.006339
    O                 5.439533        0.160687        1.816199       8       -0.034852       -0.029828       -0.005651
    O                 3.239549        1.517532        2.500873       8        0.026851        0.022169        0.030774
    O                 6.365656        4.651208        1.063548       8       -0.026117       -0.021984       -0.032731
    16
    dft_energy=-95.20405367 eV dft_virial=0.0	0.0	0.0	0.0	0.0	0.0	0.0	0.0	0.0 Lattice="6.641290427097207     0.0     0.0     0.43571420477447603     6.009059792315578     0.0     -1.3035804155188897     -0.4568044765563632     6.085065014966781" Properties=species:S:1:pos:R:3:Z:I:1:dft_force:R:3
    Si                3.047359        2.401888        3.355536      14       -0.034424       -0.107420        0.171564
    Si                0.829366        0.895634        1.184342      14        0.008150        0.011709       -0.014760
    Si                4.993777        4.785415        4.920633      14        0.043485        0.003029       -0.017294
    Si                4.639243        4.003270        1.299174      14       -0.020497       -0.016070       -0.143641
    Si                1.157508        1.428071        4.658063      14       -0.017184       -0.032524        0.009961
    Si                3.813982        1.737570        1.262061      14       -0.056775        0.005549        0.176331
    Si                2.011359        3.867797        4.801427      14       -0.000645        0.037457        0.016370
    Si                1.035944        5.476546        3.040117      14       -0.045814       -0.002296       -0.027502
    Si                4.709554       -0.121498        2.836936      14       -0.032702       -0.068873       -0.035431
    Si               -0.001368        2.988616        1.895997      14       -0.036832        0.008690       -0.058926
    Si                5.883328        2.681243        4.196748      14        0.023981        0.003678       -0.077975
    O                -1.282316       -0.330884        6.044313       8        0.068857        0.007458       -0.009910
    O                 1.272336        4.088102        2.004518       8       -0.052709        0.002220       -0.004329
    O                 4.464071        1.679664        4.119029       8        0.046661       -0.018726        0.045934
    O                 2.382555        1.228366        0.320592       8        0.043163        0.059542        0.039378
    O                 3.464165        4.439743        5.773777       8        0.063284        0.106578       -0.069769
    16
    dft_energy=-96.0507597 eV dft_virial=0.0	0.0	0.0	0.0	0.0	0.0	0.0	0.0	0.0 Lattice="11.71939949002324     0.0     0.0     -0.2864495632746233     4.921690656649276     0.0     0.18475336590993763     0.7110223206386681     4.1706556119238085" Properties=species:S:1:pos:R:3:Z:I:1:dft_force:R:3
    Si                8.540988        4.659929        2.121421      14       -0.003935       -0.067799        0.240706
    Si                0.867013        4.317758        3.643318      14        0.133043        0.115468        0.044294
    Si                7.273862        1.804287        2.047087      14        0.130295        0.079491        0.521866
    Si               11.593549        0.795587        0.843478      14       -0.067570        0.159692        0.065235
    Si                1.785339        1.904482        3.255668      14        0.037534       -0.119637       -0.087600
    Si               10.360746        3.486332        0.821119      14       -0.206939        0.064467       -0.115170
    Si               10.018576        1.420910        3.366144      14       -0.216064        0.207945       -0.065148
    Si                6.764731        5.173099        4.159445      14       -0.151665       -0.035810       -0.235925
    Si                8.295934        2.973120        3.934822      14        0.353823        0.235012       -0.352104
    Si                2.352895        2.861948        1.039519      14        0.028590       -0.136982        0.140816
    Si                5.173965        3.845438        1.835176      14        0.009596       -0.109728       -0.008913
    O                10.869567        2.142134        1.924816       8        0.078999        0.072084       -0.108102
    O                 5.657408        2.251883        1.944013       8        0.031927       -0.022397       -0.031461
    O                 5.426617        4.566112        3.283236       8       -0.053418       -0.223841       -0.070788
    O                 3.567125        3.878578        1.514023       8        0.014712       -0.130179        0.017869
    O                 2.947758        1.655700        0.010735       8       -0.118931       -0.087787        0.044425
    16
    dft_energy=-97.89121406 eV dft_virial=0.0	0.0	0.0	0.0	0.0	0.0	0.0	0.0	0.0 Lattice="8.687330566864945     0.0     0.0     -0.48325166762498606     4.372589048819895     0.0     -0.6579406200112724     -0.4373117927886999     6.975305421225448" Properties=species:S:1:pos:R:3:Z:I:1:dft_force:R:3
